<?xml version="1.0"?>
<opencv_storage>
<cascade>
  <stageType>BOOST</stageType>
  <featureType>HAAR</featureType>
  <height>20</height>
  <width>20</width>
  <stageParams>
    <boostType>GAB</boostType>
    <minHitRate>9.9900001287460327e-01</minHitRate>
    <maxFalseAlarm>5.0000000745058060e-02</maxFalseAlarm>
    <weightTrimRate>9.4999999999999996e-01</weightTrimRate>
    <maxDepth>1</maxDepth>
    <maxWeakCount>100</maxWeakCount></stageParams>
  <featureParams>
    <maxCatCount>0</maxCatCount>
    <featSize>1</featSize>
    <mode>ALL</mode></featureParams>
  <stageNum>3</stageNum>
  <stages>
    <!-- stage 0 -->
    <_>
      <maxWeakCount>8</maxWeakCount>
      <stageThreshold>-6.3121706247329712e-01</stageThreshold>
      <weakClassifiers>
        <_>
          <internalNodes>
            0 -1 11 -2.1981012541800737e-03</internalNodes>
          <leafValues>
            8.4810125827789307e-01 -6.5163570642471313e-01</leafValues></_>
        <_>
          <internalNodes>
            0 -1 18 1.1369799263775349e-02</internalNodes>
          <leafValues>
            -9.0976500511169434e-01 6.4158284664154053e-01</leafValues></_>
        <_>
          <internalNodes>
            0 -1 1 -8.9418860152363777e-03</internalNodes>
          <leafValues>
            4.9929180741310120e-01 -9.3420994281768799e-01</leafValues></_>
        <_>
          <internalNodes>
            0 -1 5 4.3603917583823204e-03</internalNodes>
          <leafValues>
            -6.3468110561370850e-01 8.0960839986801147e-01</leafValues></_>
        <_>
          <internalNodes>
            0 -1 7 -8.2505717873573303e-03</internalNodes>
          <leafValues>
            5.4693466424942017e-01 -8.5243892669677734e-01</leafValues></_>
        <_>
          <internalNodes>
            0 -1 0 2.6162110269069672e-02</internalNodes>
          <leafValues>
            -9.0112400054931641e-01 4.6503916382789612e-01</leafValues></_>
        <_>
          <internalNodes>
            0 -1 6 3.8135712966322899e-03</internalNodes>
          <leafValues>
            -5.6179893016815186e-01 9.1323673725128174e-01</leafValues></_>
        <_>
          <internalNodes>
            0 -1 15 -1.5376938506960869e-02</internalNodes>
          <leafValues>
            5.8800297975540161e-01 -8.2889145612716675e-01</leafValues></_></weakClassifiers></_>
    <!-- stage 1 -->
    <_>
      <maxWeakCount>8</maxWeakCount>
      <stageThreshold>-4.1404709219932556e-01</stageThreshold>
      <weakClassifiers>
        <_>
          <internalNodes>
            0 -1 13 5.1295068114995956e-03</internalNodes>
          <leafValues>
            -5.3896105289459229e-01 8.6458331346511841e-01</leafValues></_>
        <_>
          <internalNodes>
            0 -1 8 1.6022786498069763e-02</internalNodes>
          <leafValues>
            -4.8374044895172119e-01 8.2078421115875244e-01</leafValues></_>
        <_>
          <internalNodes>
            0 -1 21 2.9799854019074701e-05</internalNodes>
          <leafValues>
            4.4945225119590759e-01 -9.9255484342575073e-01</leafValues></_>
        <_>
          <internalNodes>
            0 -1 22 -2.8970716812182218e-05</internalNodes>
          <leafValues>
            -1. 3.8356041908264160e-01</leafValues></_>
        <_>
          <internalNodes>
            0 -1 22 3.1233004847308621e-05</internalNodes>
          <leafValues>
            3.1222939491271973e-01 -1.</leafValues></_>
        <_>
          <internalNodes>
            0 -1 4 -6.4387628808617592e-03</internalNodes>
          <leafValues>
            8.9796483516693115e-01 -5.4090005159378052e-01</leafValues></_>
        <_>
          <internalNodes>
            0 -1 17 -2.6635514572262764e-02</internalNodes>
          <leafValues>
            9.5219075679779053e-01 -5.5355823040008545e-01</leafValues></_>
        <_>
          <internalNodes>
            0 -1 22 -2.8970716812182218e-05</internalNodes>
          <leafValues>
            -1. 5.5787056684494019e-01</leafValues></_></weakClassifiers></_>
    <!-- stage 2 -->
    <_>
      <maxWeakCount>9</maxWeakCount>
      <stageThreshold>-5.6168388575315475e-02</stageThreshold>
      <weakClassifiers>
        <_>
          <internalNodes>
            0 -1 3 4.5452304184436798e-03</internalNodes>
          <leafValues>
            -5.5555558204650879e-01 8.7628865242004395e-01</leafValues></_>
        <_>
          <internalNodes>
            0 -1 2 2.0106270909309387e-02</internalNodes>
          <leafValues>
            -8.8090729713439941e-01 5.3225255012512207e-01</leafValues></_>
        <_>
          <internalNodes>
            0 -1 14 -5.6996187195181847e-03</internalNodes>
          <leafValues>
            8.7987995147705078e-01 -5.1473224163055420e-01</leafValues></_>
        <_>
          <internalNodes>
            0 -1 16 3.9571292698383331e-02</internalNodes>
          <leafValues>
            4.2831957340240479e-01 -9.8221045732498169e-01</leafValues></_>
        <_>
          <internalNodes>
            0 -1 10 -1.3229588046669960e-02</internalNodes>
          <leafValues>
            9.4713515043258667e-01 -4.1711789369583130e-01</leafValues></_>
        <_>
          <internalNodes>
            0 -1 9 1.3607852160930634e-02</internalNodes>
          <leafValues>
            -5.1312255859375000e-01 9.7344648838043213e-01</leafValues></_>
        <_>
          <internalNodes>
            0 -1 20 -1.2926060706377029e-02</internalNodes>
          <leafValues>
            -9.0677094459533691e-01 4.9486088752746582e-01</leafValues></_>
        <_>
          <internalNodes>
            0 -1 12 -2.5740586221218109e-02</internalNodes>
          <leafValues>
            9.2649751901626587e-01 -4.5484066009521484e-01</leafValues></_>
        <_>
          <internalNodes>
            0 -1 19 1.3478988781571388e-02</internalNodes>
          <leafValues>
            -3.8866385817527771e-01 9.6333658695220947e-01</leafValues></_></weakClassifiers></_></stages>
  <features>
    <_>
      <rects>
        <_>
          0 0 20 6 -1.</_>
        <_>
          5 0 10 6 2.</_></rects>
      <tilted>0</tilted></_>
    <_>
      <rects>
        <_>
          0 14 7 6 -1.</_>
        <_>
          0 17 7 3 2.</_></rects>
      <tilted>0</tilted></_>
    <_>
      <rects>
        <_>
          0 15 20 5 -1.</_>
        <_>
          5 15 10 5 2.</_></rects>
      <tilted>0</tilted></_>
    <_>
      <rects>
        <_>
          6 8 3 1 -1.</_>
        <_>
          7 8 1 1 3.</_></rects>
      <tilted>0</tilted></_>
    <_>
      <rects>
        <_>
          6 10 1 3 -1.</_>
        <_>
          6 11 1 1 3.</_></rects>
      <tilted>0</tilted></_>
    <_>
      <rects>
        <_>
          7 6 3 1 -1.</_>
        <_>
          8 6 1 1 3.</_></rects>
      <tilted>0</tilted></_>
    <_>
      <rects>
        <_>
          7 7 2 2 -1.</_>
        <_>
          7 7 1 1 2.</_>
        <_>
          8 8 1 1 2.</_></rects>
      <tilted>0</tilted></_>
    <_>
      <rects>
        <_>
          7 9 6 3 -1.</_>
        <_>
          9 10 2 1 9.</_></rects>
      <tilted>0</tilted></_>
    <_>
      <rects>
        <_>
          8 10 3 3 -1.</_>
        <_>
          9 11 1 1 9.</_></rects>
      <tilted>0</tilted></_>
    <_>
      <rects>
        <_>
          8 12 3 2 -1.</_>
        <_>
          9 12 1 2 3.</_></rects>
      <tilted>0</tilted></_>
    <_>
      <rects>
        <_>
          9 5 3 2 -1.</_>
        <_>
          10 5 1 2 3.</_></rects>
      <tilted>0</tilted></_>
    <_>
      <rects>
        <_>
          10 8 1 2 -1.</_>
        <_>
          10 9 1 1 2.</_></rects>
      <tilted>0</tilted></_>
    <_>
      <rects>
        <_>
          10 11 3 3 -1.</_>
        <_>
          11 12 1 1 9.</_></rects>
      <tilted>0</tilted></_>
    <_>
      <rects>
        <_>
          10 13 3 1 -1.</_>
        <_>
          11 13 1 1 3.</_></rects>
      <tilted>0</tilted></_>
    <_>
      <rects>
        <_>
          11 6 3 1 -1.</_>
        <_>
          12 6 1 1 3.</_></rects>
      <tilted>0</tilted></_>
    <_>
      <rects>
        <_>
          11 14 9 6 -1.</_>
        <_>
          11 17 9 3 2.</_></rects>
      <tilted>0</tilted></_>
    <_>
      <rects>
        <_>
          12 0 7 10 -1.</_>
        <_>
          12 0 7 5 2.</_></rects>
      <tilted>1</tilted></_>
    <_>
      <rects>
        <_>
          12 10 3 3 -1.</_>
        <_>
          13 11 1 1 9.</_></rects>
      <tilted>0</tilted></_>
    <_>
      <rects>
        <_>
          13 0 7 6 -1.</_>
        <_>
          13 3 7 3 2.</_></rects>
      <tilted>0</tilted></_>
    <_>
      <rects>
        <_>
          13 8 2 3 -1.</_>
        <_>
          13 9 2 1 3.</_></rects>
      <tilted>0</tilted></_>
    <_>
      <rects>
        <_>
          14 4 4 8 -1.</_>
        <_>
          14 4 4 4 2.</_></rects>
      <tilted>1</tilted></_>
    <_>
      <rects>
        <_>
          18 17 2 3 -1.</_>
        <_>
          19 17 1 3 2.</_></rects>
      <tilted>0</tilted></_>
    <_>
      <rects>
        <_>
          18 19 2 1 -1.</_>
        <_>
          19 19 1 1 2.</_></rects>
      <tilted>0</tilted></_></features></cascade>
</opencv_storage>
